Language model created by QuickLM on Sat Jan  7 13:19:55 EST 2017
Copyright (c) 1996-2010 Carnegie Mellon University and Alexander I. Rudnicky

The model is in standard ARPA format, designed by Doug Paul while he was at MITRE.

The code that was used to produce this language model is available in Open Source.
Please visit http://www.speech.cs.cmu.edu/tools/ for more information

The (fixed) discount mass is 0.5. The backoffs are computed using the ratio method.
This model based on a corpus of 20 sentences and 36 words

\data\
ngram 1=36
ngram 2=58
ngram 3=43

\1-grams:
-0.9445 </s> -0.3010
-0.9445 <s> -0.2430
-2.2455 A -0.2986
-2.2455 ALRIGHT -0.2486
-2.2455 BACK -0.2486
-2.2455 BED -0.2486
-2.2455 CAMERA -0.2486
-1.9445 CAN -0.2936
-2.2455 COMPUTER -0.2486
-2.2455 FOR -0.2986
-1.9445 GOING -0.2936
-2.2455 GOOD -0.2986
-2.2455 GOODNIGHT -0.2486
-2.2455 HEADING -0.2486
-2.2455 HI -0.2961
-2.2455 HOME -0.2486
-1.7684 IM -0.2936
-1.9445 LIGHTS -0.2486
-2.2455 MORNING -0.2486
-2.2455 NEVERMIND -0.2486
-2.2455 NOTHING -0.2486
-2.2455 NOW -0.2486
-2.2455 OFF -0.2910
-2.2455 OKAY -0.2486
-1.9445 ON -0.2910
-2.2455 OUT -0.2986
-2.2455 PLEASE -0.2486
-2.2455 RIKA -0.2486
-2.2455 SAY -0.2986
-2.2455 THANK -0.2936
-2.2455 THANKS -0.2486
-1.6435 THE -0.2910
-1.9445 TO -0.2885
-1.7684 TURN -0.2936
-2.2455 WHILE -0.2486
-1.7684 YOU -0.2402

\2-grams:
-1.6021 <s> ALRIGHT 0.0000
-1.3010 <s> CAN 0.0000
-1.6021 <s> GOOD 0.0000
-1.6021 <s> GOODNIGHT 0.0000
-1.6021 <s> HEADING 0.0000
-1.6021 <s> HOME 0.0000
-1.1249 <s> IM 0.0000
-1.6021 <s> NEVERMIND 0.0000
-1.6021 <s> NOTHING 0.0000
-1.6021 <s> NOW 0.0000
-1.6021 <s> OKAY 0.0000
-1.6021 <s> PLEASE 0.0000
-1.6021 <s> RIKA 0.0000
-1.6021 <s> SAY 0.0000
-1.6021 <s> THANK 0.0000
-1.6021 <s> THANKS 0.0000
-1.6021 <s> TURN -0.1249
-0.3010 A WHILE 0.0000
-0.3010 ALRIGHT </s> -0.3010
-0.3010 BACK </s> -0.3010
-0.3010 BED </s> -0.3010
-0.3010 CAMERA </s> -0.3010
-0.3010 CAN YOU -0.1249
-0.3010 COMPUTER </s> -0.3010
-0.3010 FOR A 0.0000
-0.6021 GOING OUT 0.0000
-0.6021 GOING TO -0.1761
-0.3010 GOOD MORNING 0.0000
-0.3010 GOODNIGHT </s> -0.3010
-0.3010 HEADING </s> -0.3010
-0.3010 HI TO -0.1761
-0.3010 HOME </s> -0.3010
-0.7782 IM BACK 0.0000
-0.4771 IM GOING 0.0000
-0.3010 LIGHTS </s> -0.3010
-0.3010 MORNING </s> -0.3010
-0.3010 NEVERMIND </s> -0.3010
-0.3010 NOTHING </s> -0.3010
-0.3010 NOW </s> -0.3010
-0.3010 OFF THE -0.1761
-0.3010 OKAY </s> -0.3010
-0.3010 ON THE -0.0969
-0.3010 OUT FOR 0.0000
-0.3010 PLEASE </s> -0.3010
-0.3010 RIKA </s> -0.3010
-0.3010 SAY HI 0.0000
-0.3010 THANK YOU -0.2218
-0.3010 THANKS </s> -0.3010
-0.9031 THE CAMERA 0.0000
-0.9031 THE COMPUTER 0.0000
-0.6021 THE LIGHTS 0.0000
-0.6021 TO BED 0.0000
-0.6021 TO THE -0.2430
-0.7782 TURN OFF 0.0000
-0.4771 TURN ON 0.0000
-0.3010 WHILE </s> -0.3010
-0.7782 YOU </s> -0.3010
-0.4771 YOU TURN 0.0000

\3-grams:
-0.3010 <s> ALRIGHT </s>
-0.3010 <s> CAN YOU
-0.3010 <s> GOOD MORNING
-0.3010 <s> GOODNIGHT </s>
-0.3010 <s> HEADING </s>
-0.3010 <s> HOME </s>
-0.7782 <s> IM BACK
-0.4771 <s> IM GOING
-0.3010 <s> NEVERMIND </s>
-0.3010 <s> NOTHING </s>
-0.3010 <s> NOW </s>
-0.3010 <s> OKAY </s>
-0.3010 <s> PLEASE </s>
-0.3010 <s> RIKA </s>
-0.3010 <s> SAY HI
-0.3010 <s> THANK YOU
-0.3010 <s> THANKS </s>
-0.3010 <s> TURN ON
-0.3010 A WHILE </s>
-0.3010 CAN YOU TURN
-0.3010 FOR A WHILE
-0.3010 GOING OUT FOR
-0.3010 GOING TO BED
-0.3010 GOOD MORNING </s>
-0.3010 HI TO THE
-0.3010 IM BACK </s>
-0.6021 IM GOING OUT
-0.6021 IM GOING TO
-0.3010 OFF THE LIGHTS
-0.6021 ON THE COMPUTER
-0.6021 ON THE LIGHTS
-0.3010 OUT FOR A
-0.3010 SAY HI TO
-0.3010 THANK YOU </s>
-0.3010 THE CAMERA </s>
-0.3010 THE COMPUTER </s>
-0.3010 THE LIGHTS </s>
-0.3010 TO BED </s>
-0.3010 TO THE CAMERA
-0.3010 TURN OFF THE
-0.3010 TURN ON THE
-0.6021 YOU TURN OFF
-0.6021 YOU TURN ON

\end\
